0.2578768927125193,-0.5254041811767907,0.6671737540982228,-0.6221402399588896,-0.23901467574571666,-0.21317852616607702,-0.4420156717506938,0.03398358795130374,-0.6944509166425146,0.24671612415083777,-0.19238195387267276,-0.23236632967695053,-0.08538150021488003,-0.18816098790514094,-0.520407006076264,-0.3529296535559035,-0.44790399972354494,0.8262005665562905
0.3605725370957604,-0.681538223667159,0.3751226167097651,-0.540184365494729,-0.20671877428255736,-0.14305454620733488,0.3467057442580722,0.326296491297443,-0.32347238133458855,-0.27590665218683846,0.10157531227367611,0.039823369942274985,0.34959362031269653,-0.33710185926308844,-0.8523532224284434,-0.5664174642802785,-0.3210317588655693,-0.2412771671516948
0.27808461363221154,-0.2863219131212308,0.1161350523823701,-0.1721911479310607,-0.5034481348876424,-0.15817757276772282,0.5935847740710766,-0.1587467284486325,-0.3991876072397276,0.31303322325709465,-0.8178045498376282,-0.46592536811755336,-0.14933549702467594,-0.48385395990146574,-0.3837604411258756,0.02965185414338164,-0.23071018576471733,-0.5218601629331594
0.13229594905919587,-0.011088064003208208,-0.5509126181042158,-0.27115497574298625,-0.42733728844262997,0.13026426141638242,-0.040249781329761126,-0.4722861857216111,-0.4441168495233424,-0.23503616787908688,0.39203012093122513,0.028585790549846092,-0.9357278544917659,0.042761419889474815,-0.561504846771819,-0.2056985854165308,-0.15258983228277848,0.07215209335499015
0.25416394566595474,0.3504342564108027,0.03166769073655571,-0.24451353562631103,0.008333651835782373,0.2570138299128635,-0.06367560412208441,-0.10064861129306144,-0.0459075188577899,-0.04038590462306122,0.2988495093738434,0.016748124727453285,0.033916466779239804,0.22678116122763253,-0.05147898918683884,0.1216620396552055,-0.13810236525592443,0.10572016304874364
1.0174325735111787,-0.5473702234575153,-0.4111740909546056,-0.3117814825622905,0.14632254471161585,0.33048155234791815,-0.08578792907191263,-0.7521564379637048,0.22575392739087657,0.3522512468653549,0.8004534374757855,-0.12320465862514415,-0.5085197192576537,0.14756794424681755,-0.5194977057539568,-0.8253804611068862,-0.7629413991684838,-0.4945392023397499
0.6744733014827432,-0.3144414365056429,-0.5572020852953431,-0.0998541884050549,-0.23085157249033678,-0.15065032734274572,-0.44630165100166963,0.15365431953587028,-1.5157990104012096,-0.004448875668233022,0.06180540454842301,-0.4257688691802042,0.04243539552935831,0.4598550550290916,-0.1792042166000902,-0.47941121427548755,0.3081612957737608,-0.09842591497950964
-0.012500961217170654,0.09261252218608966,-0.8540048735855066,-0.4120407002787979,-0.3233572600421166,-0.14573846195691628,-0.7182722867386605,-0.006445290881878851,-0.5424633870213432,0.14728937790051191,-0.1660198531355136,0.14164578336773248,0.571489295570362,-1.0656451141365755,-0.7684539894541601,-0.051265825773176205,0.12308724489272356,-0.35443507892719855
-0.5915649571583786,-0.17952040646889486,0.14942024847367072,-0.577704367858311,-0.6170328570708027,-0.1377649807035988,0.1799784834139837,-0.34635867156877786,0.017774881288017186,-0.20996727131289145,-0.12152864213609126,-0.39880389600993366,0.06881430720713462,-0.31636040291653766,-0.6021039805576092,-0.08874755387738813,0.21145149281055098,-0.3187149080650958
